encog,BasicNetwork,java,3.1.0,1,1347014524858
[BASIC]
[BASIC:PARAMS]
[BASIC:NETWORK]
beginTraining=0
connectionLimit=0
contextTargetOffset=0,0,0,0
contextTargetSize=0,0,0,0
endTraining=3
hasContext=f
inputCount=22
layerCounts=5,9,21,23
layerFeedCounts=4,8,20,22
layerContextCount=0,0,0,0
layerIndex=0,5,14,35
output=0,0,0,0,1,0,0,0,0,0,0,0,0,1,0,0,0,0,0,0,0,0,0,0,0,0,0,0,0,0,0,0,0,0,1,0,0,0,0,0,0,0,0,0,0,0,0,0,0,0,0,0,0,0,0,0,0,1
outputCount=4
weightIndex=0,36,204,664
weights=-0.8621987998,8.2578931966,0.6192070486,0.4698046034,-1.6604755796,-0.6412168116,0.3144100182,-0.2502183009,1.0661221193,0.0001444017,-0.0000179545,-0.0000057176,0.000007566,-0.0000032726,0.0000132212,0.0000292752,-0.0000263979,0.0001309856,-0.0024761912,-0.0018926637,-0.418853594,0.4210962266,-0.0014910885,-0.0035743718,0.0002501281,-0.0021791204,-0.00138599,-0.7987543223,-0.0448368309,-0.2922642246,0.6626968986,1.4339345276,2.3474886394,-0.432564536,0.9565382793,-0.0674700674,2.7616970401,-0.809000211,1.6656826585,0.126237109,1.3303582345,6.9494392053,1.5380908284,-21.4804896726,1.6205328386,-5.5878983897,-6.1651176829,-0.0115868946,-0.5198669892,-2.9421082959,-3.7727039653,-0.1446491739,4.3196972111,24.5969076245,-2.3049208169,-1.8425271567,-0.498221251,0.0603471502,-0.2303338784,0.1523706845,0.3232308236,-0.0940371504,0.0991416975,0.226706006,-0.2422250042,-0.1128817251,0.223304865,0.3415114888,0.2735380991,-0.0718571984,-2.5550035962,-0.6176645223,-0.2317310004,0.0335604174,0.4206114658,-0.2372481873,-0.3010691924,0.330709254,-0.862575388,6.0546399958,0.9633540987,-0.1400489439,1.7141641554,0.0979051213,0.3907908431,0.0213312554,2.8684746031,-0.5745449906,-0.1521129739,0.3545172222,0.0802883598,0.6635662976,-0.076297652,0.0751429663,0.0484511188,-0.0640082227,1.8692292061,0.1729977997,0.2663021423,-0.7166707891,6.3762475425,0.8468580778,0.2811524737,1.5832677301,0.102211375,0.4542780864,0.2776825243,0.0904752879,-0.3951854851,-0.1011043535,0.3390787159,0.0351369527,-0.2713315154,0.053576977,0.0974342267,-0.5068683871,0.2930304971,-0.1183308435,0.0783091973,-0.1190319361,7.4222401487,5.4972960195,-0.9468212777,0.0770542126,0.1635928391,2.3857591905,0.4981572297,-0.6488260001,0.437001326,-2.5655158514,0.2312149326,1.7252320667,0.4989046801,25.8781924758,22.3550952592,-2.892982846,-0.0688882697,-10.3959743497,-0.2969451842,0.0565768591,-0.0868899865,0.0791537868,0.0754960073,0.1400701464,0.2953624122,-0.5611171108,-0.0530581665,0.0114953939,0.1539572686,0.1180904763,0.9100730094,0.2125078871,-0.1431499661,0.2153544712,0.0610305832,0.0038982979,0.4037216581,0.0231165651,0.0816588383,0.1914989561,0.0616783118,-0.2534235304,0.8113679255,-1.7602562885,-1.588854742,0.931826518,-2.4442740141,3.9771570234,0.085999028,-53.8062055095,1.3612401279,69.5905719323,1.0958048114,1.5490974496,-21.6295849256,-48.3903120888,-28.6593652259,1.5080987874,49.0663555617,-0.7959604526,2.8230162134,-10.2997029878,-0.2921915138,0.9840557143,-1.0152422624,0.7495436656,0.337454951,-0.2771095733,0.8881918013,0.8408678715,0.478670769,-0.288359861,-0.6251399866,0.1038533513,0.4669886508,0.3205055808,0.4314385608,0.8797705278,0.5608795844,0.5714551657,-0.0754975444,-0.1300080599,-1.544689481,0.089688463,-0.0962297326,-863.0313857057,-0.3709049803,0.0917094441,-0.1252806991,-0.1659646462,-0.1179619874,4.2353228036,0.1897086001,0.5269537328,-0.0205123662,-0.4097766276,-0.8640935771,-0.4712960758,0.1302464286,0.171261466,0.2019085181,0.0537849478,0.1002742177,0.054333054,0.165575447,0.1016203148,-0.145071902,-0.0618489924,283.1146063205,0.0671895201,0.080732564,-0.2699088323,-0.254476037,-0.1270488223,0.3404081511,0.3781169634,0.4773683276,0.1456053691,-0.0248709461,0.5308413579,0.212743559,0.2242021996,0.2798517489,0.3109192333,0.4687574895,0.2475163648,0.3630229272,0.4293745373,0.0620666614,-0.3596263928,-0.0168822604,1947.3148738572,-3.1919112879,-0.9547001853,-0.4347207723,-0.515430488,-0.4504713053,1.0278248592,0.1549597073,5.3350695694,-0.785098581,-0.7449608915,0.6992606935,-0.7616718417,1.2416764557,1.2509023513,1.1416845399,1.3117823308,1.6246622412,3.8446705209,3.0395432859,-0.1717900609,0.1522593432,0.1277356109,381.761783577,0.2878856269,0.1888959008,0.1081383123,-0.030822576,0.0314926433,0.4744302278,0.3534948554,0.4019817268,-0.0072980651,-0.0695786955,-0.1429014128,0.2666235441,0.27642247,0.0674089529,0.4397503226,0.3595448576,0.4379001792,0.5614791147,0.5437211232,0.0084115078,0.3344629723,0.1065177866,2461.8070684257,0.2287300843,0.1333998612,0.0968760635,-0.0866764697,0.0437678611,0.1140680454,0.8794897468,1.4982085514,-0.3983761581,-0.545649141,0.0190810703,-0.9103561235,1.1024654299,1.3960772642,1.1302333806,0.6466398781,-0.6524316376,-1.1349096336,-3.8688638922,0.3142512869,0.0170953487,0.4761594364,4004.160394807,-6.5462092961,-0.942864132,-0.6120590761,-1.3156636109,0.4839276259,-2.7458490421,-3.8522726193,-2.0229657966,2.0173352657,8.7418867783,3.7015178448,3.9640243017,9.54199342,0.5571118825,0.3801780568,0.7237727956,0.8313293022,1.6666084524,1.5229426865,-0.9366258365,-1.1669283666,7.1360893126,5338.8286653904,-24.520512992,-0.8253753076,-0.3991099556,-0.3918601031,-0.2781440453,11.7550963984,13.5143866359,-9.4756480579,-13.3481348616,1.3005760946,1.3948800147,-66.0307485194,-0.2404959657,-0.6499935094,-0.6972729524,-3.1473306165,-2.9056431796,5.3173226882,93.4345149418,-0.6521563632,-1.865676301,0.05290964,595.9358087276,-0.0247812343,0.2381399248,-0.0057558137,0.2276878284,0.3790857101,0.1919948429,0.1317256012,0.5936106329,0.3886283987,0.1764930825,-0.0811578033,0.29035788,-0.2963921303,0.5283485071,0.4561512536,0.663947118,0.5725854787,1.8377310819,0.8205417504,-0.1636139536,-0.1256757299,-0.9834175756,-417.6665608751,-2.9984833473,-1.2557438859,-0.4268749076,-0.059997989,-0.2383714986,-9.3534349358,5.0422933336,-0.3046435706,0.1815843665,-0.1157758619,0.2634833616,-0.0476614524,1.4752631612,0.5423107129,0.4994431751,0.2937438061,0.2472017859,0.0168359615,-0.7152362612,-0.6704274378,-0.6084599959,0.052050334,255.2114098548,0.049978043,-0.7565938392,-0.3462515715,-0.418975244,0.0200242044,0.4298919655,0.4757239799,0.022664217,0.1313778763,0.1791853955,-0.1804505282,-1.4823218679,-1.0404077305,0.0766703774,0.0837579176,0.1282116733,0.0900288853,0.262533557,0.0980639943,0.1908461483,-0.1304481279,-1.0823281836,-3341.2850405844,-0.7500265694,0.4287309275,0.4843430996,2.2840252888,1.2670135581,1.346177003,1.3989653405,-0.2288978337,1.0617073859,0.0217404011,9.579357294,-3.7159708274,-0.507064522,0.4977604275,0.6605640768,0.3994125423,0.3448863936,-0.0605384818,-5.7563760934,-0.6992320656,0.4475805514,-0.0971487259,13247.2070771096,-0.7029715662,-0.38483873,0.5748587566,1.0395065395,13.9153859096,6.1167773414,-2.8720082129,0.1313139397,2.7660523326,0.881101645,7.1497565882,-9.2768356461,-6.726711727,-8.8559607355,-10.8522214856,-0.7438551311,-0.1268440338,0.1207155033,0.3525100787,-5.6242408703,4.024277703,0.1982191014,1802.9795352743,-0.3886027199,-0.4579614256,-0.3693685417,0.1759112845,2.3532911219,0.0675157741,-0.7071517697,0.1763604188,-0.1256734698,-0.5527461417,-4.4347692729,-9.3691219107,0.4577259784,0.5785137744,0.5547814356,0.641338842,0.5526183827,0.3650373741,0.2054824577,-0.2494103203,-0.4231630283,0.2460468735,50.6128089276,0.2306944471,0.1991463834,0.0700132719,0.1207202569,0.4500123455,0.019056568,0.2289204282,-0.0631406466,0.0172248269,0.0908109802,0.2623501615,0.1658574012,0.0139417532,0.1564050507,-0.0482641154,-0.0447785082,0.0583962107,0.0939195161,-0.1857077291,0.1157750019,-0.3372006115,0.2577226718,-196.1994946478,-0.8376679883,-0.9085525191,-1.0171175423,-0.8379827661,-0.5123393654,0.5015151049,0.0949241157,0.1526530268,-0.1668897669,-0.3324824525,-2.6583400488,-0.2330902117,0.1909399039,0.3353721813,1.5375576502,1.2867408597,1.5206302891,1.4707699769,1.265158629,-0.0902358717,0.1801534838,-3.789347336,1218.0427893115,35.6469832273,10.8895658178,8.8485577406,8.6983670906,9.0565950984,0.2328380895,21.5557629251,8.6181809484,4.4212837092,4.0157098854,-3.6990157627,10.001186216,0.2601863433,-2.401540483,-13.1143200602,-3.7437073856,-2.7316951701,-20.8890792982,-6.4050399222,-3.9186755504,0.3271863666,0.1417619386,-3.0087834746,1.7296878353,0.9699271746,2.2101233316,0.3576476791,-0.2597498268,1.4102063299,-0.8100814231,1.3553003682,0.4174388298,-0.019451134,-1.2193657188,0.7108795681,0.2820520787,-0.0375000938,0.1199490626,-0.0322291364,0.136638504,0.0227432315,-0.2642620058,0.744313509,-0.1900876618,-0.038048763,98.0527276979,0.3278404441,0.3035374889,0.2978230878,0.0463536849,0.0425798365,-0.1455326074,-0.1621079556,0.1345925889,0.1724742433,-0.1258776732,-0.3493170564,-0.0680968217,0.3727200642,0.4762470064,0.1741072486,0.1149217426,0.287470732,0.2257156598,0.2634432776,0.2553057836,-0.2626061907,20.7450335593,16789.4108658771,16.8074707659,-0.1279940467,0.421010682,0.5879346416,0.8387355483,4.9495371798,31.9576031459,5.2038140649,2.5462118378,3.9839526384,5.8985870674,0.0366555177,-45.2639292576,-55.6015595884,-92.1802312031,-16.6566893045,-5.7286362108,-1.429828482,-46.7709935528,-0.6840576751,4.7153942711,0.2799268974,969.8293305627,-7.0559159843,-1.4800320915,-1.068100502,-0.3882274271,1.117381787,-0.8826969911,-0.8012714779,1.7712953262,1.4329444309,0.1277934039,-0.7737977186,-0.4668945616,2.6989379275,2.4311031709,0.3601066048,0.1984988304,0.0554001818,-0.01294676,-0.0403187273,-0.0177879443,-0.1303160204
biasActivation=1,1,1,1
[BASIC:ACTIVATION]
"ActivationTANH"
"ActivationTANH"
"ActivationTANH"
"ActivationTANH"
