encog,BasicNetwork,java,3.1.0,1,1347007807868
[BASIC]
[BASIC:PARAMS]
[BASIC:NETWORK]
beginTraining=0
connectionLimit=0
contextTargetOffset=0,0,0,0
contextTargetSize=0,0,0,0
endTraining=3
hasContext=f
inputCount=22
layerCounts=5,9,21,23
layerFeedCounts=4,8,20,22
layerContextCount=0,0,0,0
layerIndex=0,5,14,35
output=0,0,0,0,1,0,0,0,0,0,0,0,0,1,0,0,0,0,0,0,0,0,0,0,0,0,0,0,0,0,0,0,0,0,1,0,0,0,0,0,0,0,0,0,0,0,0,0,0,0,0,0,0,0,0,0,0,1
outputCount=4
weightIndex=0,36,204,664
weights=1.9672842511,2.3456199702,6.4648813849,0.2010946439,1.8237726603,-5.4861814798,-12.2772559871,4.6252838085,-0.5966596178,0.0000934374,-0.0000180758,-0.0003101067,0.0000211126,-0.000381883,-0.0000365168,0.0000456936,0.0001635545,0.0004772417,0.0039846657,-0.0032325355,0.5090188398,-0.0044275046,0.0297109671,0.0025527777,0.0042289392,-0.7771364989,0.237434396,-0.615459533,-0.9519957381,0.1659551261,1.3424363822,-0.8808308529,0.6328151563,-1.959071602,-0.0100797845,0.0715213137,1.8688998284,262.6200752301,1.2055081955,1.7438928642,5.9527856894,47.3532642787,-36.1130087041,-1.5314190972,-7.707768128,-0.9172352874,23.0848834414,24.744738037,35.869777945,9.9677580832,1.1061306841,4.6083369542,-3.4723952206,1.1169406259,-4.6393738006,-2.7334486677,1.5283895558,-3.19461776,-23.5860413206,-2.1689257311,-11.442278461,-11.2366818137,12.969540738,-12.8397537279,0.7507804351,9.0820895483,-1.8028459565,-19.5796559867,-0.2942025803,41.2968521221,-20.0006282165,1.9088582824,1.4212622182,0.5759473885,1.0914090057,-5.6938103145,1.6583395778,-3.3364503427,0.2698652504,0.7451287346,0.6852563467,-0.8622337172,-0.0561599868,-1.1424606644,0.0937398596,-1.5775913268,6.1504540712,0.360374634,0.9553207831,0.4648954519,1.5865723474,0.9963727291,1.0511607074,-0.4473768998,-0.0764792966,3.4646654548,-4.98091884,0.0894288942,0.0769125137,1.383617897,10.8885340889,0.8128639028,-1.0923545777,-4.4134346979,2.8107519477,-2.7360876625,-0.2674756283,3.9744006726,1.7416580639,6.7814483686,-0.3593573965,0.9507265378,3.9977801363,0.2741935047,-1.7195615085,0.2037811495,0.9234104599,0.9368166978,2.2264495702,-0.034696234,47.9901091203,-29.5100173005,0.7559491252,-1.2276174008,-18.6492687442,7.9376235455,-0.7882512184,-3.5743539281,0.5246982172,2.3204351966,39.5552515063,-6.2033753173,8.3826511135,-2.9817891738,-3.8806199699,10.2705824522,-2.5903626591,0.8330765585,-164.4047101926,-4.2540159334,3.383463673,0.0313859784,-4.0340376697,-1.9440544484,0.2975107539,7.662259309,1.4382377554,0.0077372619,0.2477192262,0.5158988236,2.7310164632,-1.1805437725,-0.575430458,2.0005163798,-4.1430623,0.9153570548,4.244807928,0.540633982,-1.0980198492,-3.5877198555,-0.3667232823,0.3853752051,0.0102335834,-0.081631593,0.1172881754,0.8173470428,0.3600496682,-0.068779728,-0.3655091779,0.5519440574,-0.01821908,0.0668338626,-0.4154266231,1.0895769878,-0.8426109498,1.1884887174,0.4545648443,1.3155622385,0.3911905222,0.2488530045,0.0516239766,-0.0884849696,-0.4160820969,0.4634149142,0.7749443998,-0.100485162,1.3430396795,-0.3516381908,-0.521663348,0.1808035705,-1.2752400051,0.0911285048,0.3488390637,0.0848289655,-0.4684746424,-0.0613203512,0.512437381,0.1043068373,0.3212723812,0.0377843834,0.1353687482,-1.0019882514,-0.0387623896,-0.2348896699,0.4729522103,-2785.847449727,36.5698724529,6.6215231061,23.3428117411,46.9454291609,48.8423340285,12.8418070344,36.7776105954,9.7158251155,38.6556606553,80.1732667204,1.4195454771,-51.5387426246,2.7514637862,6.1524161552,5.7990242983,6.355320349,15.7813050835,13.2009037129,-83.548078282,3.9341115069,-1.1827426398,0.2720245743,-40.731943776,0.2215553208,0.1910558236,0.2204444529,0.1750547722,0.2053314145,0.5680446298,0.3962415366,0.1675863632,0.187939805,-0.3788807288,0.0843177703,-0.3303213241,-0.1348479829,-0.2782065781,-0.2402189908,-0.043975175,0.359205592,0.049672638,0.0421921282,0.0460895713,-0.2408197178,-6.8010076424,-11340.1821701669,52.4359310047,-0.689880418,-0.1597069977,0.0319780094,-0.0198447211,18.8556556141,-7.5215898785,4.6264277026,11.8833823797,3.587517632,4.207399412,-4.8074764893,-4.2768787481,-4.3475295957,-2.3094967484,-2.1361568621,5.3664564637,13.0054815163,15.4077763936,-8.2523610076,-1.5958121806,1.6754895334,-1001.9580522064,4.1228915119,2.9916879768,3.0589695712,1.604424834,0.5257051447,0.1498610849,-1.0514864598,-1.2081179526,1.0308310113,2.9163970308,1.430560959,-0.8492680181,-1.8688986246,-2.0446156086,-1.1144488449,-1.015367913,0.1301543828,-0.2212420116,-0.7950567069,0.8076762438,-0.5009846743,0.2354266136,-300.555752934,0.7252825005,0.1147923047,0.1055725925,0.0801199971,-0.1674985919,0.055666151,1.9526101328,0.2231766451,-0.5121483028,-0.3415576005,0.0508608682,-0.2902269013,0.1019258417,0.201117939,0.2864547141,0.2739549601,0.2627387408,1.8427430322,1.4329411304,-0.0566864177,-0.374291062,0.1622558032,103.0191294493,0.7033016674,0.9176231023,0.6662718412,0.3945867716,0.3546699065,0.3338586561,-1.1710179447,0.42245679,0.4382564399,0.4948030893,0.9479479961,-0.1631127706,-0.3288498887,-0.3378796975,-0.1257028198,-0.2198338541,-0.2208540719,0.1106716516,0.0452498196,0.5541261542,-0.0793590275,0.2686053785,-26.8919914235,-1.0263472502,-1.0401014894,-1.2805642533,-1.0158984165,-1.2273050397,-0.4381316379,1.156168167,0.2680461146,-0.168092322,-0.3553703916,-1.3676869775,-0.5710968638,-0.2340711025,0.1047272181,0.2900907837,-0.0117650457,0.1585261832,0.0930240427,0.0076737695,-0.4718351766,-0.1742657272,-4.8935705429,575.9632339849,0.6602050595,0.5075837778,0.490031316,1.5598612479,0.3742934064,0.783702561,1.355850583,0.812353341,1.4415719925,-2.0445019955,6.9474236917,-0.0851624554,0.5021714639,0.3129887984,-0.2444599085,-0.6425014959,1.3177066015,0.1018522749,0.0180081565,-4.0376050595,-0.0143879753,0.5166297842,291.9554974108,0.4233080174,0.2457375859,0.1246050967,0.3074507344,0.0276597961,0.2978234379,-1.476572088,0.2739548837,0.0195256042,0.0360166994,0.1836151681,-0.0702861171,0.2424220142,0.4402915043,0.2756083147,0.4635450168,0.3723472044,0.3305803432,0.3943164381,0.1693018307,-0.0775161578,2.0087349305,-6.6406264538,11.4691690629,5.4278342516,5.1955366872,2.3298055752,0.5378706868,-0.0977718738,-3.7147019768,-0.844447202,6.0903110035,-0.9145205995,0.2023762984,-2.9704820669,-1.5351614473,-1.1706110487,-2.1328463955,-2.7639261965,-3.2498568025,-3.3450912719,-21.1399267714,-0.3932559287,0.2723275969,-0.0049424932,285.6395498654,0.6704189513,0.489648874,0.5861415835,0.6789684869,0.3282408981,0.3171018082,0.2801709614,0.2849021642,0.5400969859,0.8368124037,0.6662615601,0.0806996755,0.0343308685,-0.019225718,-0.5886250981,-0.5438891668,-0.5356955369,-0.5403534787,-0.3975575262,0.5549949179,-0.2836072505,0.0814776394,-140.089569496,0.1433678852,0.2886425242,-0.0810668054,0.1375447349,-0.1286716277,0.1210617435,-0.8122556026,0.071498085,-0.3048914671,-0.8267021336,-0.3824361331,0.4145292988,0.6522177398,0.4667683456,0.68047953,0.2401821328,0.0817394165,0.2950234287,0.498787227,0.4138507977,-0.5627552556,-0.0181463137,162.3124329666,0.7217667241,0.7289802056,0.6425329269,0.5123775139,0.6822848159,0.2715390397,-0.0905486602,-0.1710621992,0.4184631886,0.2387562635,0.512177336,0.3525446111,0.4549504813,0.1102829368,-0.2271187453,-0.0124176119,0.0330280332,-0.1296877561,-0.2696988922,0.2032434622,0.0216037183,0.1883887122,-121.1625899264,0.3401018856,0.1541487023,0.1852975704,0.0750954941,0.2699872748,0.4191014195,0.2052254478,-0.1028984186,0.4252830764,0.1948539818,0.2104753235,-0.2752816,0.1109540474,0.2149216812,0.0354736736,0.1102340096,0.2077796611,0.1155666739,0.0421495051,0.0380595028,-0.3470466905,-18.66719399,1615.5297363696,61.4424072061,10.0623959957,13.1038176902,6.0073589212,2.1326120147,2.1003786227,0.0258388842,1.4776625434,13.8760905132,11.3513719206,9.9504365089,-1.598356667,-5.720347,-7.1066248454,-9.7892637662,-5.432908393,-4.6202719497,-5.1818317057,-18.6481162152,6.9710081377,0.6629865748,0.1549584878,2167.6883585184,-1.08763,0.1695007171,0.2543578487,0.2781353531,0.3524990092,-0.1586575239,-0.4280150999,-0.1332011255,-0.0251436734,0.0902832655,-0.0267139673,0.0087223548,0.1390951985,0.33786145,-0.0098300297,0.3863573302,0.224825449,0.4823058819,2.8834484029,0.1926067471,0.3132553327,1.7579709524,-4846.8508386913,1.6782526149,0.6672658889,0.4649452545,0.596970526,0.8783228278,2.6023544071,1.3839838212,0.9797414094,-8.0229808457,0.1903705541,-1.6477141761,-2.1312365781,-0.3226732924,-0.6553878291,-1.6070182314,-1.0704097099,-0.0218556761,-0.940272279,-0.3373796015,-0.0160104905,-0.2604308538,0.0788723363,-333.7922274698,0.1067110498,0.1442257844,0.0921080918,0.3302656784,0.3052159541,-3.7926226182,-0.2608639938,0.1864888201,-1.0951764871,0.958446084,-0.658822366,-1.2728546811,-0.8040675941,-0.1018228112,0.1775966586,-0.0213896584,-0.0721226101,0.1692363048,-0.0358279872,1.9647689405,0.0156315155,-0.1015058882,205.8831059757,0.0733939657,0.1606099724,0.2742789685,0.0511273625,0.2316729608,0.2333401605,-0.2649484623,-0.6783433391,0.4928858619,0.497446046,1.4110005762,-0.4906131465,-0.7313957228,-0.6965115091,-0.6826800478,-0.3647211658,-0.5340327113,-0.5032566429,-0.4687734666,-0.3264067752,0.0866292695,-25.8913877214,12927.1385045941,-8.2925902073,-0.8612402561,-0.7940861913,-2.6303019478,-4.030380419,-5.5517536544,11.5954582842,-0.6961205117,-1.0011479475,-4.1263495922,2.0319640641,0.4575672757,0.4639905291,2.5767921858,1.9141928639,6.8635337431,2.2096975446,2.4404820401,2.3760094168,-2.334579085,-2.8492240005
biasActivation=1,1,1,1
[BASIC:ACTIVATION]
"ActivationTANH"
"ActivationTANH"
"ActivationTANH"
"ActivationTANH"
