encog,BasicNetwork,java,3.1.0,1,1347009664830
[BASIC]
[BASIC:PARAMS]
[BASIC:NETWORK]
beginTraining=0
connectionLimit=0
contextTargetOffset=0,0,0,0
contextTargetSize=0,0,0,0
endTraining=3
hasContext=f
inputCount=22
layerCounts=5,9,21,23
layerFeedCounts=4,8,20,22
layerContextCount=0,0,0,0
layerIndex=0,5,14,35
output=0,0,0,0,1,0,0,0,0,0,0,0,0,1,0,0,0,0,0,0,0,0,0,0,0,0,0,0,0,0,0,0,0,0,1,0,0,0,0,0,0,0,0,0,0,0,0,0,0,0,0,0,0,0,0,0,0,1
outputCount=4
weightIndex=0,36,204,664
weights=-3.421737229,-0.0597502731,10.3480334075,0.8480648479,-4.8320879192,2.5330870281,1.2474328517,-8.3202904478,0.1701426257,0.0000151239,0.0000289135,0.0000213698,0.0000359337,-0.0000316131,0.0000159436,0.0000196018,-0.0000328073,-0.0000546885,0.0003759705,0.0007662564,-0.0001260459,-0.3849372052,0.0000552107,0.0002168975,0.0002034793,-0.0001101087,0.3844267123,1.7720476284,1.6007780448,-0.0013445406,-0.1722152636,0.6140208334,0.0975068095,-0.4021698735,-0.0491620103,0.1884023989,-4.5305546048,-3.5766875938,-0.4857912873,19.6286757476,-0.0739667573,0.2277291748,0.1380448356,-11.5121135061,-0.1942900923,-6.5221860528,1.2078496741,-0.0718278797,-1.0024927205,-2.2226378352,0.4000593777,0.1180102353,-2.1006525086,0.0945017579,0.6224852281,0.090519105,-0.0968554251,10.6995900319,15.4688478114,-0.1828075075,-14.3789374562,-0.0073985316,-3.8872137595,3.4835861055,9.1290833309,-0.1062400332,8.2674875543,-1.4212558056,1.6406709024,4.1141384512,-0.1919585702,0.1085616242,-2.5983306088,1.4078326779,2.3190999593,0.7903627894,0.9720116519,-0.0571166849,0.3666185013,1.7462226145,-0.2685127356,-2.7181170268,0.3311696197,0.0474746747,0.1111068099,0.2686641526,-0.3059661392,-0.5874265692,-0.0259319144,-0.090486102,-0.6317958361,0.2427384784,0.1314303883,-0.1090909113,0.0918999193,0.2403250576,0.040968713,0.1298393293,0.0308852462,-0.4295169943,-13.9919292884,0.4108084664,-30.0668909551,0.3235924734,0.0371293775,18.9574747859,43.7707810068,-0.1200271396,11.9347406027,0.3041417567,8.6516523005,-0.5274596296,0.7313089761,-0.6850975882,-0.9821069395,0.3245445476,6.3115667691,-0.002547567,-1.5990228578,0.2465324728,-0.0144694435,-2.1503950069,0.3735227027,-1.5642497438,0.0443528788,3.4436704586,0.1605285574,-1.5022350949,0.2828766493,0.8429727039,0.105820003,0.4793616008,0.6796844562,0.1411504524,1.5690423733,-0.0036010243,0.1787441336,-0.0575363792,0.3225831431,0.1051165819,-0.4364884136,-11.0152187591,-2.6993249006,-0.2463042697,-4.2328140536,0.1038369456,-0.0907509862,2.5467030344,-16.0138425603,-0.2275634081,-1.6965580824,-0.3376514027,-0.2273465678,-3.1343416978,1.087700348,1.5746241065,-0.6357998852,0.0425147559,0.2500493896,2.919519724,0.5856078152,-0.0422606255,-2.9507278291,-3.8005395587,-0.78311518,-50.6453307997,0.0994389925,3.3178892406,-0.1784580612,-11.3548899874,-0.1211287223,-4.6363207048,-2.9920393933,-0.8850638846,8.2241828561,0.2812151593,5.2832694881,3.0811760859,2.6644009138,0.6613389139,0.2746120088,0.1830449345,0.0981162437,0.1420060953,1.1906187659,0.096359803,-0.5777709155,0.1755966653,-0.5260655604,0.1740108537,-1.0113847594,-0.1390150959,-0.2611627883,0.2894342188,0.1310320833,-0.1707244441,0.2324739484,-0.4999705223,-0.0395442065,0.0477344163,0.025960997,0.6954331073,0.8613949843,-0.3761473931,0.8083089407,4.2778440447,0.2172409868,0.1062662732,-0.2173103072,0.1476821776,-0.0281493301,2.7107069118,-0.2551586401,-0.5690067779,-0.403295511,-0.3270223114,-1.1624402161,-0.6989490696,0.0725086217,-0.0501837305,-0.0565471332,0.033155474,0.1409660864,0.2296880587,-0.0288461889,-0.5302813551,0.1228067708,0.2562802321,-83.1200343583,0.2921792811,0.0432570303,0.1530210327,-0.0161600048,0.0737908331,-0.0282442194,0.2423457455,0.3884812363,0.2408900257,0.1484395418,-0.1534085059,0.4866245275,0.2452449111,0.3327288796,0.1024449389,0.0172324313,0.1393719085,0.0715753882,0.2382070682,-0.8759163723,-0.2251282354,0.0841128314,204.0597492969,0.3551024884,0.347257471,0.1015468597,0.1742018513,0.0116021774,0.0959844737,1.2808532149,0.2190977698,-0.1322354105,0.2565411177,0.1901513005,0.0250258835,-0.1357276401,0.005859682,0.1294197039,0.0709857073,-0.1325747202,-0.4746491894,-0.3251520726,0.2640669267,-0.0632487222,0.0469029549,-139.9383198273,0.154112539,0.2401607052,0.3673226826,0.2429906439,0.1941248182,0.2346030659,0.2042352928,-0.0093212818,0.1212987581,-0.1824881857,-0.1202075785,0.1328793041,0.540075018,0.5816088629,0.2539996914,0.4855807536,0.5137158592,0.3197557312,0.124019577,0.1200092466,-0.2915929739,0.1886620885,59.2200307234,0.2486584358,0.1405679239,0.2863811046,0.2172721881,0.2983547574,0.3492935588,0.1346134182,-0.417645322,0.3202866878,0.3515235049,-0.6174437575,0.316003787,0.1649609643,2.2203579832,0.3287002204,0.3895448081,0.3378595687,0.1454041193,0.026099206,-0.0374908151,0.1828220715,0.1705683146,-7.7786405481,-1.5246277585,0.1151481957,-0.1297732865,0.0208382191,0.2669519597,-0.0338755617,-0.3490719924,-1.0542464907,0.2959873648,0.164552204,-0.4849414468,0.2111737088,-0.2807233542,-0.3385793913,-0.9670723342,-0.1827625286,-1.0298532967,-0.8700264594,-1.2058682953,0.8610681653,-0.1372217207,0.3147571316,-609.6591124462,-0.1445291704,-0.304822677,-0.2240223125,-1.2585213148,-0.7812326029,-0.5528418609,0.2379646692,0.246193759,0.7060090752,0.3174292967,-0.0935573179,-0.2318576947,0.0523289991,0.1482196297,0.2147735459,0.1228022443,0.0624231232,0.0475214687,-0.388596131,-0.17109384,-0.0396691939,0.3238149413,42.3988217675,0.3601524695,0.3144004531,0.4465988677,0.2799357905,0.3555108451,0.1088257318,0.0698327635,-0.0355735774,-0.0675573136,0.2910609644,-0.1044343749,0.1313256176,0.1239751475,0.2029554957,0.1321915766,-0.1478356185,-0.1197262761,-0.4202479811,0.1586087305,0.1933921753,-0.2811550379,0.1602140541,49.8324058903,0.3163257977,0.0172835458,0.34178477,0.1121419692,0.2406722489,0.2116857947,0.1189777279,-0.0844286623,0.177675381,0.0408110976,0.40306608,0.2812382695,0.203391988,0.1411460016,0.0499885508,0.3552023963,-0.0302589458,0.0658932439,-0.2110489226,0.1533136517,-0.068100912,0.3816539907,173.4629496611,0.3811900734,0.1288238388,0.1178106451,0.1859972537,0.9134019649,-0.6540627557,-0.3596239564,0.23056287,0.6248475489,0.3954791766,0.1384800036,1.5796688556,0.1380358287,-0.1244400364,-0.3576003984,-0.4156879747,-0.3331865803,-1.3160148973,-1.8753324819,0.143745815,-0.3606641258,-0.1303014179,11746.1817678384,-1.1332684635,0.1252598129,0.1339084483,0.7319811752,1.9592314191,1.5440108478,3.7275378339,17.1567130883,0.7859486735,0.7460537002,-6.9479353644,-0.1522774011,-8.6054360867,-0.9431418932,-0.702921205,-0.1208167088,-0.4265841172,0.2988095294,3.9867632861,0.7954716569,-0.000032268,17.4586354458,1619.8756210861,-3.9439400766,0.017967421,-0.2594683515,-0.1422188159,0.1412198053,5.5371581149,2.0248621512,-13.5543153304,10.3892993203,0.6605855802,2.7263554683,-0.2952823393,-0.717393943,-2.1616944324,-3.0080097558,-2.13441494,-2.2661065719,-0.8798754927,0.6111754995,-10.3150779962,-0.0150011058,0.1429368314,31.458291171,0.0804660331,0.1019775411,0.192098525,0.231147536,0.3203046856,0.2961497557,-0.1202627369,-1.3589901306,0.5114447752,-0.0207306621,0.1740430341,0.2113128322,0.1478286619,0.1874305455,0.062150345,-0.1442112486,-0.2275270319,-0.0439960071,-0.1166194376,0.2139874737,-0.1537197534,0.2289760605,-10.6413854426,0.1960711412,0.0665278844,0.071565508,0.2241746116,-0.1240290738,0.049986612,1.1152026862,0.711362646,0.8430618436,0.118581556,1.8196820595,-0.0247278372,-0.7106498147,-0.639233223,-0.2693297901,0.1569643259,-0.0851586047,-0.7378175078,-3.5066577279,-0.0569596627,-0.3485839328,0.0457332784,3704.6856832144,-2.8589729824,0.0290143402,1.0907916232,0.7436225391,0.8481889403,4.8134604316,6.7249550455,-4.2447125858,1.54852125,-0.7501176742,-0.0694073191,-1.0097291617,-1.6597764523,-0.5264012921,0.3574535776,0.3087519321,1.1062705423,1.9232948454,7.1112978816,1.3829628471,0.3034271433,0.6506549344,-5386.5411869124,10.0099105472,15.9360014385,7.4034006844,2.1433012647,0.9790584405,1.0927086835,0.2010011313,-5.259751583,-0.0451240437,-0.1131900004,2.2353069863,2.136767933,0.5603784976,0.9505364742,0.8321333405,0.8658849027,0.7823231314,0.1225533416,-10.4894792095,0.206972435,-0.4598964391,-1.0863347842,8867.6526486863,0.0976348907,0.0705636579,0.0679351695,-0.0348596977,-0.0444061029,-1.5622218277,5.5516749408,-1.4019920759,3.2478876574,-0.0173293347,0.024176043,-1.1063581246,-2.6201420438,-1.4034243372,-0.5748427621,-0.2104919862,-0.2945008184,-0.1435562614,-0.2458649139,-1.6265174029,-0.0686983505,2.3892870689,1017.1412705039,-11.557234773,-0.8269883386,-0.1271270491,-0.0639895253,-0.0456321241,-0.2345454056,2.6210498624,-0.6570676793,-1.2215506611,0.2386509175,-1.6248488436,5.7742395981,0.3875176934,0.6891637567,0.4475459787,2.0834949528,1.0080196763,5.0711496434,2.0482162607,0.451402902,-0.1601614446,1.4025397586,-2549.4890447406,2.9670294614,0.7335608149,0.458104041,0.6667452613,0.6585333625,12.9733043788,3.7176456255,2.5238433781,-1.6842173696,0.1877976188,1.9847731613,-5.8488297649,-8.3166700691,-3.1436494944,-0.325235567,-0.0297205579,0.0330909785,-7.8930921627,-44.2935627476,-1.4001466449,0.1695019558,0.4073876693,677.5756663516,-10.6386680436,-2.728642444,-7.0869142373,-3.0891252857,-1.6704282308,0.0529491892,9.8877864802,-0.4919718904,-7.0415293619,0.7879899403,4.7856560429,-0.8149851872,3.8780603406,-1.7963991595,-0.6534788393,-0.0640117944,0.2325948142,-0.0656773647,0.0582117409,1.745934237,-1.0662620803
biasActivation=1,1,1,1
[BASIC:ACTIVATION]
"ActivationTANH"
"ActivationTANH"
"ActivationTANH"
"ActivationTANH"
