encog,BasicNetwork,java,3.1.0,1,1347011386852
[BASIC]
[BASIC:PARAMS]
[BASIC:NETWORK]
beginTraining=0
connectionLimit=0
contextTargetOffset=0,0,0,0
contextTargetSize=0,0,0,0
endTraining=3
hasContext=f
inputCount=22
layerCounts=5,9,21,23
layerFeedCounts=4,8,20,22
layerContextCount=0,0,0,0
layerIndex=0,5,14,35
output=0,0,0,0,1,0,0,0,0,0,0,0,0,1,0,0,0,0,0,0,0,0,0,0,0,0,0,0,0,0,0,0,0,0,1,0,0,0,0,0,0,0,0,0,0,0,0,0,0,0,0,0,0,0,0,0,0,1
outputCount=4
weightIndex=0,36,204,664
weights=1.1666399536,6.9859398537,3.9989147331,-2.5038845942,-2.8431771886,-3.623333405,3.9792266816,7.1444053127,-1.2011150845,-0.0021318782,0.0000025579,0.0000355702,0.0002091906,-0.0000036935,-0.0032118084,-0.0000329657,0.0000065736,-0.0013054002,0.0379021462,-0.0009625332,-0.0012420236,0.0010389254,-0.0035420357,-0.0379157899,0.0032196505,-0.4906687951,0.4171511602,-0.6868324447,-1.5284585329,1.731614415,1.8179104225,0.0623359251,1.0300546574,-4.5012002963,0.079999622,1.0279313264,4.5523983342,261.3993779952,0.5731325761,2.3516060175,5.5383873077,46.680339022,-36.6481518367,-2.9060510169,-126.8204510793,-0.2744171959,22.297639426,24.3456615926,34.9324985932,26.2447506799,0.4714261458,3.6016701276,-2.8396020288,1.6690470901,-5.2248075093,-3.3221848372,2.1171257253,-5.1752888499,-23.687826801,0.9342837716,-9.1532753498,-11.5945484761,15.3479780732,-12.809020236,1.7195652067,8.730651567,-0.9711927126,-18.3209493479,-19.6920954273,41.2453611011,-19.7071924173,3.3354651605,-1.6291871614,3.7838385445,0.7017216082,-5.9513557025,1.4269510101,-3.105061775,2.0117959984,1.9399899366,1.3709543291,9.5213737197,0.0205915362,-1.0975363132,0.6258029582,1.6101031015,6.3215812113,-1.0673307659,-0.3876695013,0.2028579027,1.4175043577,6.2376527867,3.7691743346,-0.3361296028,-2.5726249259,3.2231206747,-1.014102113,0.1641147546,0.0022266533,1.191686388,5.3578403579,-2.2088422574,-1.4298933078,-4.3998229988,-2.7841217005,-3.7769566834,-0.3327113785,-15.4028937227,1.5558373426,7.9733544908,-0.0884891216,2.7125778273,9.2147384528,0.8947092538,0.4420836956,0.0965698378,1.4665287448,1.1801803631,2.4485191532,-0.256765817,48.1225227478,-22.3815906913,23.8393965232,9.9277462887,-2.4280088226,-11.5895549628,-5.4485555955,-54.770474609,9.9350984765,-0.8692999347,49.1122577823,-1.4397064249,22.5676229596,-2.2989248884,-4.6713889557,-4.4240772012,-5.9014024392,-1.8089936991,-164.6400479172,-3.7662279515,2.8956756911,-2.0480478168,-8.4489324321,-1.9384546516,0.4471865575,7.6416591444,-15.4062921942,5.1946989374,1.6973288003,1.5568033483,1.5145260689,-18.0451554079,-0.8692373388,0.7986825104,-5.2427762332,3.9933697578,1.2338647449,1.5072387189,-4.4794868125,-2.9764826084,2.9969620749,-2.9783101521,0.907315826,-0.1357133859,0.7964437499,1.4447538651,0.8759472851,0.0192193489,-1.9278351387,1.3865811954,0.0603602221,1.4015170071,-1.3531090723,3.2534174019,-2.0312362298,1.9865195562,1.1079929259,2.4387660532,-0.2008950142,0.874875682,-1.9006609216,-0.1587035736,-0.3458634929,4.9590460936,11.4044659591,-8.2648682613,6.0428391764,-8.1028193661,-6.2860010482,-0.0694826834,-9.553090981,18.3999930648,-0.6839760433,-1.2088731114,1.6213944736,0.0051209107,4.6626640142,0.6872030209,-4.1329057054,3.7669333194,10.7591223724,-2.1658778796,0.3975048748,-0.6711569343,-10.8514633802,-4969.8355834655,35.6399824885,5.1388540329,21.8565004314,45.5576169483,47.34032863,11.1750859172,21.8498746113,5.388333211,29.4730604555,75.0424481568,-2.369561357,-53.5688495076,1.2525398363,6.5028318742,5.4794924129,4.9679634097,14.9780723662,12.8127332561,-83.0908929702,11.0344736781,2.2788417592,0.5930372198,-41.1568514045,0.4613914641,0.6282046876,0.7483400624,0.6614977451,0.6234384442,1.0362597035,1.2981089731,0.8748441564,1.0759063711,0.032964017,0.2203373626,0.0698300125,0.3317315193,0.5285583939,0.5604932559,1.3958627229,1.7978306294,1.4843940942,1.4828199511,0.3694959962,0.0452198286,-13.0774356011,-11479.847963183,70.0438069175,-3.9235372734,-11.13976481,2.0100831832,24.1542423826,14.3418767258,-10.132381911,19.44064111,1.7526123005,9.0589694141,5.1429769511,-12.3817467861,-7.8107624903,-9.7949563915,-1.9806391696,-5.6549743301,1.4394653576,8.3744342765,-72.287729144,-13.0346641767,-1.8383264989,1.741852723,-444.4612616884,10.087052013,5.6194868221,5.4696270113,3.440554053,0.5344782954,-0.8052714844,22.0407444436,-9.641407537,1.2187167057,2.3930925218,2.8943026653,0.5061906533,-1.5723111671,-3.4976372433,-6.3182540245,-10.0303724015,-4.3658373146,-3.1383948191,-1.2053030512,0.2819827135,-0.9916265019,-0.5923504692,2312.0009536756,0.6024454745,0.0718800736,0.0369087379,0.0180581716,-0.3978591182,-0.3095752178,3.5455891218,2.458421023,-4.0924617451,0.0833203159,-0.5749945575,-0.5369406536,1.4201032599,0.1505064981,0.4523289797,0.4472103566,0.4789266524,2.7259149935,19.1763994785,-0.6391197153,-0.7520870943,0.2102127728,144.1778317006,3.2893921962,-0.0851453687,-0.397310826,-0.6554705147,0.1591423049,0.7464154442,-1.3474846869,-0.08885505,-0.2838615094,0.2129332354,1.0858285802,-0.3496992181,-0.3354822755,-0.3777419892,-0.1617168665,-0.2578127541,-0.2426565445,0.0748552239,-0.0010373956,0.4921689449,-0.025180332,0.129137588,-224.1825335167,-1.4187478112,-1.8746517836,-0.7395403892,-0.3138371859,-0.6079709115,0.0712793163,10.1829818357,-1.9544083001,-0.1010110715,-1.9091012402,-0.6103158242,-0.053801553,0.1255504013,0.8185326983,0.8669499703,0.601051952,0.6148024041,0.995824447,1.5355761356,-0.8197336837,-0.1555577839,-2.1597927526,-1467.5567332504,2.6065001683,-2.9437393523,-0.1073978659,0.7678208672,0.2239650713,-15.1251329067,1.5064413742,2.2673857442,3.4432873061,-2.3289562126,6.236549951,-17.6563018561,0.8216073753,2.3668849638,0.577279178,-0.1665970609,2.0270730112,1.817385016,5.2996862088,0.142814595,0.2194149864,0.546237038,192.9756901502,3.8379443251,0.5937166965,0.1995017525,0.4046505869,0.7037266819,0.5039107931,-1.0810603236,1.4731702392,-1.9834698217,1.2309850061,0.599748691,0.2426793734,0.3108158379,0.5314840631,0.6911563775,0.9617235029,0.5460272826,0.4284648176,0.4713310585,0.1022952527,0.0185442434,2.1850858959,1059.4280564723,8.2286656593,5.1387633218,4.5338974251,-0.3051453559,-2.9066456841,-6.2491747998,-12.7312628427,-5.0440173915,9.0342518132,-1.1332086092,2.2955857516,14.7334905513,5.0516548466,3.0474313344,2.0308600364,1.352052488,0.7718645919,0.4850169749,-6.465205946,-4.4741928355,1.2260206031,0.0233364349,348.4330558245,-1.3051500442,-0.0721787452,0.505106274,0.6462319752,0.4406359671,0.439621297,5.7883386006,6.9545565517,0.6152887266,0.7770236947,2.5207516957,-3.1697446111,-1.0604966909,-0.1666368637,-1.2251964444,-1.2839849249,-1.7666707627,-3.0182556699,-3.839919222,0.6836118268,-0.0430193412,-0.0748945748,339.8882944358,0.1141249966,0.32212808,0.2046142993,0.9642967612,0.3817705089,-0.7333161639,-0.6312581448,0.7280871422,-1.11091734,-1.3928021457,0.3530508768,1.0857237943,0.7955674793,0.8496084048,0.6898731173,0.3139599744,0.3100406431,0.5130766461,1.6490158001,0.6551215226,-0.4551538049,0.1970936844,357.7566746875,0.3240867345,0.0179263214,0.2826680045,0.0302403662,3.9086737369,-3.016975779,-4.9104775248,2.327605875,-0.1742182003,-0.6026009736,1.3045053696,2.8909417937,0.7711475739,0.3693235973,-0.3455616178,0.0101416266,-0.2130805851,-0.6003709309,-3.5115392296,0.3654842265,0.2370158852,4.0968492601,191.7993241765,29.3572336212,2.685991199,1.9642285257,0.5881293264,0.580353996,1.2000678099,3.9963909496,1.9816141805,0.0359269467,1.7184886525,0.8117262701,0.05447327,1.3546923658,0.7759184273,0.3979070275,0.4036183305,0.4856199981,0.2893142002,2.7405617403,0.2910731862,-1.3222962716,-19.3594198932,5430.9342353004,57.591342244,6.1732087581,37.1658463402,10.3167840984,-0.6405607799,0.0481847576,-18.5270346036,-1.7087220497,-0.4488533469,8.2980830463,1.2591910564,17.4054064543,-17.6427881764,-4.695410167,-7.7714578563,1.0220477866,10.3464419602,-9.663101401,2.6073961345,20.710749147,0.106812209,0.2723342186,1318.9947108154,-2.8942031697,0.4205294251,0.7252226259,0.6463199714,0.665994982,0.5414806061,0.3614684008,-1.4068719561,-0.3108178747,0.0389017855,0.7247853141,1.7107312948,0.5401607986,1.9474031559,0.3731082306,-0.6072005752,-1.4634993761,-1.6669992412,-5.9803762614,0.410522847,0.9944145699,-4.257491783,-13816.9851330267,36.8954591836,3.9732706057,3.8126357239,2.6058667061,0.5851941618,2.6823555777,-15.8384972889,-9.5713996655,2.2657742535,-5.5969303454,-6.0705975731,7.7168645264,135.6925807391,0.3757877374,-1.972449989,-1.772772716,-7.7032145987,-15.5510222952,-325.3617432094,-18.0166131277,8.6852589246,0.8485247551,-3873.7605799554,4.6156076004,0.9149402687,0.5845787605,0.7654233635,0.7571207238,-6.7833019894,1.6486001196,-1.6245093805,-2.2887339054,1.1656847541,-2.2672816085,-10.5982371491,-0.3234343889,0.4113810532,0.6959900303,1.1185751489,2.3255448839,4.9206018987,2.4486240981,5.9929558028,0.5070293113,-0.1981215452,506.5289457943,-0.5134287082,0.2948374416,0.4618582158,0.255478277,0.4518785909,0.7401819621,0.2700814309,-0.5112153259,0.4109249032,1.7019419857,1.8952597103,0.6287641286,-0.1653889747,0.3108447243,-0.490999582,-0.1860235162,-0.3712315609,-0.3325614773,-0.2103250399,-0.3025707846,0.1773299045,-35.0856006662,12918.5615651503,-15.8461009946,-8.7999265828,-8.632772518,-10.8541638138,-12.6394178244,-14.1607910598,2.7634559867,-5.1371216605,-5.3421490963,-8.467350741,-1.6697913295,-6.3255924329,-5.9339936401,-3.7211919834,-4.7689668447,0.1803740345,-4.9586377033,-4.7278532078,-4.7923258311,-13.8398452659,-8.4827286191
biasActivation=1,1,1,1
[BASIC:ACTIVATION]
"ActivationTANH"
"ActivationTANH"
"ActivationTANH"
"ActivationTANH"
