encog,BasicNetwork,java,3.1.0,1,1347009259648
[BASIC]
[BASIC:PARAMS]
[BASIC:NETWORK]
beginTraining=0
connectionLimit=0
contextTargetOffset=0,0,0,0
contextTargetSize=0,0,0,0
endTraining=3
hasContext=f
inputCount=22
layerCounts=5,9,21,23
layerFeedCounts=4,8,20,22
layerContextCount=0,0,0,0
layerIndex=0,5,14,35
output=0,0,0,0,1,0,0,0,0,0,0,0,0,1,0,0,0,0,0,0,0,0,0,0,0,0,0,0,0,0,0,0,0,0,1,0,0,0,0,0,0,0,0,0,0,0,0,0,0,0,0,0,0,0,0,0,0,1
outputCount=4
weightIndex=0,36,204,664
weights=2.1327802822,-1.0888839987,4.0474232842,-3.033409325,3.9178067652,-11.4623410741,-9.5756601813,3.902138672,1.5688364133,0.0733572004,-0.0461237393,-0.0105732575,-0.0246191457,0.0222853764,0.0275949846,0.1158874367,-0.0079943185,0.0167812133,-0.0001593345,0.0001234081,0.0006177926,0.000030519,-0.0005003569,-0.0032020218,0.0001963956,-0.4137918575,0.410570107,-0.2046702494,-1.0796811662,0.8104928102,1.8805688353,-0.8618674905,0.613033734,-5.3394661006,0.6426962417,0.0906269489,0.6891295586,210.499035089,-17.6594609652,1.9581163869,6.9075866103,-8.4544829494,-22.6610033089,3.9076774752,-14.4231552174,-46.1981463343,24.0344701834,24.7305466187,98.635473389,5.4809108479,2.1848304867,4.7406831826,-4.5785362582,1.7313230841,-4.1455067436,-2.7316551581,4.2968994183,-2.9363654562,-23.5985160711,1.4312699785,-11.1900980288,-10.9019807899,15.552698642,-13.099082667,4.7382773525,9.2667059757,0.4512445496,-19.0919638491,-0.2229353678,36.5571565234,-26.0628514419,3.5718967705,1.2532117148,-0.7587769222,0.3918052259,-6.8089849142,1.2732127999,-3.077426197,3.5054957814,35.3885549385,1.4813337972,-1.23527661,0.1385089395,2.3026072698,0.9833415692,-1.6409858031,5.6067484905,-11.3725439318,0.8002979338,-5.9313263807,0.9731080118,20.9062162649,4.0819753038,1.0105719383,0.5514552506,3.1386948891,7.6692942355,1.4119298272,-0.3087671668,7.2203306292,1.3533777612,1.0182324678,-0.9719019679,-4.8969968896,4.9258223059,-3.4204619839,-1.2770313773,5.0994404887,10.4650495898,5.7536384877,1.7934406703,-4.0799342091,1.6711339441,-1.0365103814,-1.7701671183,-1.2393984606,1.0383541591,0.5640557817,2.1318818139,0.0710997246,46.3768653477,-20.048818042,-0.7243887175,-3.7809582977,-23.0982595638,10.244643213,-2.7354032534,-3.930046142,2.6826990532,3.3163250279,39.7351822638,-19.2381541283,10.64497325,-108.7974020019,-5.0869068812,10.6723446564,-7.5918975984,11.7156638222,-136.8384347839,-0.9776441854,8.3849986123,0.7629885176,-13.5270865096,0.9596758991,0.8472283943,4.8680022885,1.2669974931,0.8458004273,1.7929333496,0.6231253166,2.7693893661,-8.795709558,-0.5161055402,1.8796316226,2.0023282346,1.6487557614,4.031770941,1.4725746431,-1.5101724274,11.6909014942,0.3776565333,-0.0832854201,0.2823026991,0.3153596942,0.0730857334,0.9086560674,0.3857967366,-0.1028108217,-0.6376686638,0.2140228396,0.0504052396,0.1975038646,-0.5955335265,0.9959834364,-0.7311251091,1.1544004713,0.0261716361,0.6642895494,0.301463177,0.3484811577,-0.0734374922,-0.1798476458,-0.321706956,0.7400462099,1.4050037004,-0.8585848725,1.5856882138,-0.3947263731,-1.7837367621,0.5018510182,-1.5489137759,0.437207752,-0.3045179398,-1.0475941132,0.2592396313,0.3211925644,9.7032290279,-0.4120575432,-3.5331879155,0.7849229802,-0.002187289,-1.4081273778,0.0405330869,0.1312127152,6.9013324422,-2943.9991573549,35.0585150754,8.6647824384,25.3850531228,45.4242731678,47.2944285961,10.9909347381,32.2366275465,5.2188736357,35.8442717679,124.004779293,40.0728413249,-70.0013932707,-20.5312413921,6.0545600913,3.7768886082,3.7363062474,13.0858145465,10.7086713212,-86.2074033011,-0.9442255024,-2.4820444117,0.3889355748,-38.1132224859,0.2256875352,0.1964052004,0.1781974635,0.1638030014,0.3064553051,0.900182421,0.5755572274,0.2025816793,0.1324726427,-0.3879771635,1.3315769243,0.8678948275,-0.1492854988,0.8982339896,-0.1754581679,-0.0483399549,0.5436946163,-0.2689050433,-4.0332139327,0.0299382668,-0.150884307,-6.877900225,-9126.268682392,54.4562923299,-7.4203590208,-23.7172393433,-5.2633007644,-18.0222624001,19.0380642896,-2.6004386186,28.1967684079,6.7660734493,5.093807173,4.9423013849,-13.988445392,-7.5584702771,-10.9873367872,-20.5620127972,-12.3229647342,-4.9577773012,-2.9367991222,77.5568245706,-5.4292010094,-2.0487983442,4.3782520602,-761.0780165574,-24.5647548994,1.7606695045,-0.3619037905,-3.562080038,-3.0057139641,-0.7950868977,-0.3322353186,0.6419800449,3.2993651019,-1.0699272124,-0.9270100351,-8.7628676977,15.3037748367,-1.4185584693,-1.2077783252,-1.0503350177,0.2784085178,1.4011859929,-2.4347595381,0.7267521736,1.2154697935,-1.5991950843,-90.4769373406,3.5062760037,-0.7381507496,-0.7600221937,-0.7196002866,-0.7467155838,-0.679445642,1.8613171815,0.5583673904,-1.0291624898,1.4737447701,-1.5546458542,0.2924762614,0.7466934867,-3.2604420224,3.6356080157,0.5411865117,5.1105513658,1.7753196999,1.0341644352,0.3017815453,-0.7796552156,0.1479865756,99.8510970708,0.5108974223,0.7253833565,0.4745949109,0.2021099554,0.2325643112,0.1254442202,-1.4200559741,0.3421929401,0.3850021745,0.532854298,-0.5079363141,-0.045265305,2.5795079638,1.5725597336,-0.1150962032,-0.278935745,-0.1055878496,-0.1055613136,-0.1893635237,0.5074119594,-0.0916243905,-0.0444917906,60.8067595702,0.2159061396,-0.0931221787,-1.0771641863,-0.991018279,-1.2578795551,-0.5271106729,1.0503563762,0.4897744568,-0.3662031933,-0.9244147913,-3.6046659276,-3.9306091684,-0.0966847255,-0.74275279,0.2684569345,0.0755614211,3.7661178356,0.2792376436,1.0522845607,-0.429841922,-0.334764359,-8.0390110666,-1751.204545078,33.6349017298,0.1157052918,-0.4691808096,-0.7504969377,1.5705771019,-23.8478420609,3.8888911945,5.6147563811,4.3096682755,-1.6501550529,3.9440814534,8.7354963051,4.0189791566,-7.2623809769,24.3231565871,6.174988282,1.3314745925,-0.1448962396,-0.5828637359,-5.6586867319,-0.078836256,1.2566846978,492.6044547556,0.730384517,0.5389115221,0.3952449832,0.4934764772,0.3099564597,8.3178143858,1.3797053343,0.5579565016,0.2678142808,1.8840261233,1.4081041097,0.9530358627,9.4630141684,2.4695315284,1.1407391845,1.1391756308,1.4470998403,1.0411887959,1.2532602202,1.2834405735,-0.0948527516,2.7030053772,2216.9355548767,11.8221888734,5.3101415904,5.6236112854,4.2125352658,1.5742001174,1.584311258,0.0358579227,-5.6958482239,0.5327448058,9.5467592304,-1.8507319052,13.0183163238,-2.5240009848,-2.661287525,-1.862765177,-1.363751817,-2.8658826136,-2.7196635917,-21.0447152489,-6.8741622213,0.0572931542,0.0696828173,103.4340856649,0.2665220105,0.0648674385,0.1571607953,-0.7451334661,-0.5695111684,0.0515615487,0.3647619135,0.876017197,1.0649494235,1.0177045497,-0.2464146805,0.6932481805,-0.0632251833,4.988371721,0.0078035515,-0.6798986485,0.6499211081,0.2338256618,0.9485675264,0.297693983,-0.3596918971,0.5006206313,305.1000374376,-1.8909186136,0.2068610073,-0.0819631088,0.1050207094,-0.1413559997,0.2110520838,-0.773305732,-0.6357304544,-0.3852833013,-0.7726975257,-0.7509952236,1.9755051722,0.8086689272,0.5136789649,1.2380217044,0.1684768399,0.3950627631,0.1204965543,0.2891609371,0.4551412949,-0.6264417922,-0.0093157685,211.79156745,0.0463976066,-0.0903895179,0.3090538697,0.4045536771,0.5807706905,0.1740860086,-0.10328894,-0.0997466717,0.2110362356,0.200985114,0.3023595201,1.270755788,0.4517310733,2.1328523262,-0.1989573796,0.0287803915,0.2121817346,-0.0562437892,-0.1745754129,0.407160599,0.0437769178,0.5531674875,156.5741938842,0.3592134603,0.1749004898,0.2011001457,0.3932000387,0.3942260551,0.6962930264,0.4485240771,0.1716450436,0.4297137453,0.4023957196,0.0647311197,-0.1983982495,0.1681963459,1.0045863381,0.0133536057,0.0216738919,0.099960326,0.002640826,-0.068645818,0.027873456,-0.3343601823,-18.9067219819,10078.6736916238,64.4694384531,11.8788178721,30.1158216866,61.4753870298,15.1981104412,4.337400064,1.1840546168,-5.2640310402,0.9001540393,8.3623243822,11.1829146501,-7.3424889703,-10.4407020987,8.4936858116,-18.4936850281,-35.2010883202,-6.1512677696,-7.2049190954,-49.503883146,13.8137344723,0.0361097365,-1.5013167231,972.5784660181,1.3833495638,1.2842192297,0.9564414976,0.2048351417,0.2633030511,-0.6336200561,-0.2644159652,1.7648386791,0.2390315229,-0.2307863559,0.2281990079,0.1995832926,0.2104378845,0.8115726638,-0.175248417,0.1713955428,-0.4966292869,-0.1708854641,-3.9820844288,-0.7879628859,-0.3767332475,-8.6163915822,-11164.0115526705,147.7972325581,7.6741274599,3.5276855241,3.4217685872,3.0992048611,3.6291692795,-36.7250955017,6.2834110404,-3.7858452018,-13.4671111537,-19.9363705671,-3.8316805837,-18.8407739481,-2.5567183709,-0.3384136349,-0.7752767423,-3.5650267524,-19.2042423377,-58.359850557,8.6595350985,-1.9392416522,1.2197696278,-406.9207170395,-2.806904189,-1.7580517937,-1.4486952745,-0.2295457635,0.2161803257,-6.3188534682,-2.1106710278,-3.017071656,-1.7405089084,2.3245549273,-0.9248146701,-0.6067870047,1.6426501847,0.4337631358,0.445996261,-0.1369756822,-0.1096957083,-1.0951989199,-8.0447171223,3.4667391641,1.0936454749,-0.1789640645,208.4627311397,0.0873300839,0.1195180871,0.2297717985,-0.1140102524,0.0746067057,0.0507070279,-0.2613111582,-0.5923894843,0.319556749,-0.0101784148,0.9591227684,0.7934885633,-0.9429503359,-0.8472877818,-0.8454406338,-0.6044554439,-1.1175181539,-1.0962552339,-0.6939328821,-0.4103790861,-0.0495111213,-27.7093257278,11933.6400894623,-10.2866688722,-1.9202338833,-0.7674959963,-2.1240964201,-2.1790621574,2.3335527489,10.4526137227,-1.2680386187,2.4410774852,-7.5145682277,-0.7844657616,-0.9444839791,-1.6123061038,1.1402009558,1.8401097637,6.7858463779,2.2148564537,1.5383130023,2.6445896433,-1.9793848678,-1.7739086969
biasActivation=1,1,1,1
[BASIC:ACTIVATION]
"ActivationTANH"
"ActivationTANH"
"ActivationTANH"
"ActivationTANH"
