encog,BasicNetwork,java,3.1.0,1,1347016232456
[BASIC]
[BASIC:PARAMS]
[BASIC:NETWORK]
beginTraining=0
connectionLimit=0
contextTargetOffset=0,0,0,0
contextTargetSize=0,0,0,0
endTraining=3
hasContext=f
inputCount=22
layerCounts=5,9,21,23
layerFeedCounts=4,8,20,22
layerContextCount=0,0,0,0
layerIndex=0,5,14,35
output=0,0,0,0,1,0,0,0,0,0,0,0,0,1,0,0,0,0,0,0,0,0,0,0,0,0,0,0,0,0,0,0,0,0,1,0,0,0,0,0,0,0,0,0,0,0,0,0,0,0,0,0,0,0,0,0,0,1
outputCount=4
weightIndex=0,36,204,664
weights=0.7318764255,4.6742182683,7.0518128808,-1.1338062415,5.1061217475,-0.2244814721,3.8111433559,2.4450478407,0.0024789801,0.0094797565,-0.0019411674,-0.0403757583,0.0024783835,0.015407773,-0.0049356943,0.006081671,-0.0048949943,0.0145838042,0.0094355083,0.0019194724,-0.0607341069,0.0109418988,0.0447425206,-0.3555827016,-0.0072875497,-0.0188477678,0.3774845583,-2.2636653376,0.0016420287,-0.621515951,0.4210715779,0.4153966273,-0.8522541618,0.4916673181,2.1273696135,0.3669226652,0.1749498044,-4.9578411518,-16.9347455698,0.0523802248,0.4239188144,0.9501615019,0.8728196778,0.3077132034,0.9051024113,-0.4244255472,-1.0270516608,0.2172802947,5.3282224918,-0.0354350911,-0.0556752594,2.0846316516,0.0676250669,0.5485139268,3.6471893981,0.9455531333,-0.1534551864,0.3006369987,-4.8600701971,-6.8996807109,0.2424703121,-0.022743035,1.2099896108,-1.5639149563,0.3261325412,-0.5409642579,-1.2053173617,-3.6069611476,0.2240930755,-2.1344593768,0.2844935364,-0.7690084632,-0.0445314945,0.2293362738,-0.7573757397,-1.3950213957,2.228653444,-0.0325784641,0.2963901229,1.4657583277,-0.2419238724,0.1571569871,0.2791020998,0.3385941708,-0.3561107013,0.164883859,-0.06789182,0.0375013242,-0.8353663667,0.2292607692,0.5439753626,0.1693992072,0.4332802786,-0.3674145731,-0.0407275973,-0.8742574227,-0.0997652383,-0.034590986,0.295148443,-0.2142770849,4.9956924325,-3.1533827243,-0.0292595427,1.4258154744,-0.4794142953,-1.7703696078,1.4209211749,-0.8505876864,4.4619599636,2.3214929872,1.9157156116,-28.7017320593,0.2803166403,0.8608987148,-9.4819923889,0.2374055919,9.4146846542,15.2537412314,5.1018337889,-0.2996939066,0.3532349668,2.1401147202,-0.7703855684,0.3364959321,0.3543752812,0.2710776828,-0.5888112053,0.2536842439,-0.1292446431,0.4938028445,-0.2343885398,0.0486547857,0.8310595681,0.1572808836,0.6099303913,-0.2844792061,0.3368528373,-0.5739138884,-0.8930631493,-0.1745315244,-0.228625718,5.4585012094,4.0511519602,-4.1684845349,5.3288668322,0.2567799554,-1.9447757851,-1.3492712297,0.1570669155,1.0249387966,3.8882207141,8.6146721667,-0.2894338885,-1.5831370747,-0.0250404542,3.4071288526,-1.1177805356,-1.3219607333,13.5134144547,0.730252094,0.3297143539,-0.0459081014,0.1643984798,0.0843216073,7.8943449762,0.1299183413,0.5116365105,-0.1144247476,-0.4468859112,0.8644579782,0.5408148828,0.268653188,0.0308422887,0.3712058184,-2.0574061344,0.196930682,0.6701832371,-0.0802335032,0.3620622536,0.0894626634,16.2867416724,1.5246334486,0.0080541348,0.1904933171,-8.2680636372,-15.4021974824,0.1585678658,-0.6408596271,1.4851520628,2.2835392677,0.1044811559,-0.4414733861,-1.7064852029,0.2077899619,0.1453222155,-1.2061325613,0.3764237779,-0.7481755152,2.712149345,0.3619411869,-2.0088843956,-0.2481401538,-0.5885333736,0.4210223092,-0.141483207,471.7274871046,-0.0727676723,-0.1033700354,-0.1030509917,0.2601526502,0.3133920907,0.060758925,-0.1354704972,0.1135283766,0.4842311532,0.2355273392,0.2103904644,0.013131639,0.0546052587,0.1336435419,-0.0225578587,0.2050424315,0.4866546132,0.5046233044,0.0536030338,0.3037374263,0.0474561798,0.0909289774,-123.9943514602,-0.5453245575,-0.1915219163,0.2999931249,0.2321053142,0.1799037236,0.0468822989,0.9268761184,0.3743776924,-0.0283617111,0.0418580369,1.1664414749,1.1300024303,-0.0047500144,-0.3970935629,-0.48821018,-0.4329488306,-0.4569311655,-0.2711796397,1.452759439,-0.054551343,-0.4660233298,0.5808165975,-146.8672617269,0.2352376118,0.134324724,0.0306299981,-0.0236638638,-0.0687904785,-0.0040895724,0.325562324,-0.0043847983,0.0724445426,-0.3048516225,-0.0305825437,-0.0669217271,0.1272164645,0.1012028118,0.0949399653,0.15609619,0.2002330666,-0.1578402636,0.1884498013,0.1666744332,-0.478409136,0.2375514234,314.3295433846,0.0370219722,-0.041460391,0.0924604893,0.0914636066,-0.0039310361,0.2715398912,0.1611779014,0.1196245485,0.4754692383,-0.2827029683,1.1229620712,0.1859539607,-0.0006082257,0.336790035,0.0300172192,0.201160909,-0.1238990657,0.0727193542,0.1344289284,0.4583257154,-0.0323213047,0.3120963152,2811.5787334902,0.1484310745,0.0976196629,0.009999252,0.2343910283,0.1067705699,0.228926635,1.0576007729,1.7642730777,-0.2162910416,0.6089323227,0.1398901886,-0.0344033424,-0.0953739284,0.33963766,0.1829491599,0.3567318475,0.2735157622,0.3893786515,0.3069831562,0.2303059774,-0.2057930938,0.2638432258,-6744.8643714906,0.3601552316,0.8955871908,0.7447924065,1.0123332031,1.0258156151,2.9946594012,4.4409114833,-9.0115617262,-1.4127979961,6.0386279351,2.3077230201,-0.4567562763,-1.2097656282,-2.3841963228,-4.1123048571,-11.8193568238,-9.8749617398,-9.109325015,-44.9250190455,0.232935179,-0.2104843328,-1.0794724716,6065.752001356,-0.852909407,-0.2247756296,-0.0617137455,-0.0035148349,0.1195833351,-2.6508114835,4.9351444166,2.1028660234,-9.3750121575,-3.0630924482,0.0511739906,23.7272075324,0.7326202596,3.4818337358,3.9669907708,0.6819897716,0.5238213941,0.3650689689,0.4555194508,0.2877536086,-0.1395418419,0.0043897777,788.2404240661,0.0159484267,-0.0096209641,0.2549577468,0.0547758519,0.2192010964,0.1493857239,-0.0389268206,0.0394340803,0.2065097343,0.2659257238,0.0993465228,0.0839126679,-0.0118861294,0.0308376395,0.1498588616,0.1761135236,0.2744990073,0.1461993715,0.0070369558,0.0932838542,-0.0091427051,0.2846944882,-589.4518771254,2.8833904845,1.8014601059,1.017225279,0.4249263975,-0.0209115006,-3.9357364523,4.1544802899,-2.726098911,3.5953888852,-0.8916237672,-0.8898537534,0.6466084271,-0.010656742,-2.4817408068,-4.6743112385,-4.8885956898,-9.6311477747,-17.0838655054,-28.5934029869,-0.2270411123,-0.3963879709,0.1701017326,3448.7521757446,-0.1032372409,-0.039107338,0.1321109318,0.3154609271,0.2314837458,0.2709584626,0.7313613682,-0.0054708425,-1.852686588,-0.2904175601,0.4613968146,-0.3878679789,0.3040416588,-0.24067699,-0.5821982025,-0.5821751088,-0.8333481963,-1.610183467,-0.6451865773,0.2386162385,-0.0829730715,0.1365768438,-1597.4474463261,0.3758432328,0.2731544269,0.3869403859,0.134640734,0.3290996692,-1.5316310356,0.7139536895,-1.0040466247,0.2514249772,0.6084577621,1.3169533437,0.0158440675,0.1966170759,0.0158571737,0.1151625417,0.227671065,0.2729272355,0.1082676254,-0.0829341811,0.1755802154,-0.2586990348,0.1767339161,1542.4425143725,0.2109520296,0.2803334638,0.0149709767,0.2478883605,0.1625281196,-0.0554746291,0.0684723847,0.1013655921,0.2589194651,0.7115296934,0.1273299127,0.2116033656,0.199308289,0.0536199772,0.4094805572,0.5765445086,2.0761320296,2.0380052738,1.9971412265,0.210576729,0.0554054161,0.3655817704,-450.0156036783,0.7930757395,0.4961701752,0.2579138403,0.4173922352,0.2138943443,-3.2290084096,0.0774287986,0.0900471,-0.4520577725,0.1014785555,0.1486030649,0.4361086454,0.3910064704,0.1722917726,0.1301613854,-0.0229381833,-0.0343800634,0.1713041727,-0.1336289886,0.0467571233,-0.2474676257,-0.2780223072,-55.5305671552,0.0004229416,0.0996451771,0.0483268656,0.1622824415,-0.2173645811,-0.0022936658,0.0023852275,0.2437049197,0.1279588578,0.4553849115,0.1120237302,0.0312454477,0.1620034844,-0.0132184772,0.2204727716,0.1818278299,0.1700541636,0.1850223312,0.3397880595,0.316103723,0.2255930614,-0.130116298,-659.2332262175,-0.0561117709,0.2608961354,0.1596505601,-0.0251810123,0.2083638294,0.8644999165,2.698472557,0.1987876994,-0.7751425977,-1.64436457,-1.2420171666,-1.4619370727,-1.2073629074,-0.1063983373,0.0131614629,0.3043531921,0.0563714565,0.011269554,0.0925042875,0.0504807895,-0.0050332631,-1.5235146132,100.044669765,52.3326198274,20.7921244543,2.848486285,1.1740545974,0.8570193556,0.4291096168,3.2815510093,-1.1243737228,0.5250176495,0.22098019,-0.7770486097,-0.2788938705,0.3333671035,0.0728481412,0.3928267612,0.3916946493,0.3762497352,-0.006539344,-4.3784074827,-3.8106714751,-0.0574706674,0.2943538552,786.9741166396,0.0837851281,0.1847786453,0.2295335405,0.1598416363,0.1501084673,0.5067326649,0.0883140795,0.1146164308,0.4035768792,0.4772570959,-1.09903722,-0.4175701056,-0.5124525445,0.261260978,0.1905439645,0.0797131047,0.3102360725,2.9300355613,3.4648027041,0.0949614475,-0.0216689981,0.1178048376,-309.2785163352,0.0806254083,0.0156898982,0.2027993016,0.0547850707,0.3693812692,-0.0099194246,0.5401098427,0.3230085522,-0.1737577457,-0.055265959,-1.1059036658,-0.0183199508,0.0695182574,0.1153978551,0.359664558,0.2527144389,0.1400013006,0.0744654786,-0.0023928292,0.200237182,-0.1450308954,0.4420997139,1638.5688948095,0.5207552972,1.1926959013,0.3093611083,0.1861094287,0.2777619379,-2.8475540955,-1.0106014202,0.0751145962,0.4640222638,1.9503996051,0.8205741034,0.3185274308,0.5821937271,0.3159094293,0.0401123676,0.196466868,-0.1066185888,-0.4213825009,-2.5559705263,0.5127626445,-0.3710489209,-0.7404037509,-5557.1715515959,-0.0329312326,-0.0485399452,-0.2166431036,0.0063454162,-0.3236908518,-0.046833601,-8.5894730282,-1.4660025814,1.6095526416,-0.6664748363,0.7574076632,-0.077448932,1.0059884363,1.9418881428,0.6978062908,0.6528516988,0.5417937693,1.3037511947,-0.2456361437,0.0728936195,0.2899901871
biasActivation=1,1,1,1
[BASIC:ACTIVATION]
"ActivationTANH"
"ActivationTANH"
"ActivationTANH"
"ActivationTANH"
